<?xml version="1.0"?>
<opencv_storage>
<!-- Created using Computer Vision Toolbox(tm) for MATLAB(R) -->
<!-- Version 9.12.0.1927505 (R2022a) Update 1 -->
<!-- Compatible with OpenCV 4.5 -->
<cascade>
  <stageType>BOOST</stageType>
  <featureType>HAAR</featureType>
  <height>32</height>
  <width>32</width>
  <stageParams>
    <boostType>GAB</boostType>
    <minHitRate>9.9500000476837158e-01</minHitRate>
    <maxFalseAlarm>1.0000000149011612e-01</maxFalseAlarm>
    <weightTrimRate>9.4999999999999996e-01</weightTrimRate>
    <maxDepth>1</maxDepth>
    <maxWeakCount>100</maxWeakCount></stageParams>
  <featureParams>
    <maxCatCount>0</maxCatCount>
    <featSize>1</featSize>
    <mode>BASIC</mode></featureParams>
  <stageNum>10</stageNum>
  <stages>
    <!-- stage 0 -->
    <_>
      <maxWeakCount>8</maxWeakCount>
      <stageThreshold>-9.7767269611358643e-01</stageThreshold>
      <weakClassifiers>
        <_>
          <internalNodes>
            0 -1 37 -1.0856634005904198e-02</internalNodes>
          <leafValues>
            8.5123968124389648e-01 -7.5552284717559814e-01</leafValues></_>
        <_>
          <internalNodes>
            0 -1 17 -4.0083960629999638e-03</internalNodes>
          <leafValues>
            5.4490900039672852e-01 -5.8702385425567627e-01</leafValues></_>
        <_>
          <internalNodes>
            0 -1 82 -1.1706691235303879e-02</internalNodes>
          <leafValues>
            6.4095211029052734e-01 -5.0659388303756714e-01</leafValues></_>
        <_>
          <internalNodes>
            0 -1 95 3.8538468070328236e-03</internalNodes>
          <leafValues>
            -4.0949890017509460e-01 8.4982579946517944e-01</leafValues></_>
        <_>
          <internalNodes>
            0 -1 49 -7.3937248089350760e-05</internalNodes>
          <leafValues>
            4.5125755667686462e-01 -7.5711363554000854e-01</leafValues></_>
        <_>
          <internalNodes>
            0 -1 81 1.0296232067048550e-03</internalNodes>
          <leafValues>
            -3.5103243589401245e-01 7.9916095733642578e-01</leafValues></_>
        <_>
          <internalNodes>
            0 -1 4 -2.0184325985610485e-03</internalNodes>
          <leafValues>
            7.8492021560668945e-01 -3.5010391473770142e-01</leafValues></_>
        <_>
          <internalNodes>
            0 -1 79 6.8092354922555387e-05</internalNodes>
          <leafValues>
            3.8329958915710449e-01 -8.9951020479202271e-01</leafValues></_></weakClassifiers></_>
    <!-- stage 1 -->
    <_>
      <maxWeakCount>7</maxWeakCount>
      <stageThreshold>-3.1563833355903625e-01</stageThreshold>
      <weakClassifiers>
        <_>
          <internalNodes>
            0 -1 13 -4.1070420295000076e-02</internalNodes>
          <leafValues>
            6.3773584365844727e-01 -7.2560977935791016e-01</leafValues></_>
        <_>
          <internalNodes>
            0 -1 79 -2.1136249415576458e-04</internalNodes>
          <leafValues>
            -9.3692523241043091e-01 3.4768152236938477e-01</leafValues></_>
        <_>
          <internalNodes>
            0 -1 34 -1.8221411854028702e-02</internalNodes>
          <leafValues>
            7.8469443321228027e-01 -4.8472744226455688e-01</leafValues></_>
        <_>
          <internalNodes>
            0 -1 69 1.7306520021520555e-04</internalNodes>
          <leafValues>
            3.6228254437446594e-01 -8.8275843858718872e-01</leafValues></_>
        <_>
          <internalNodes>
            0 -1 3 -1.2787032872438431e-02</internalNodes>
          <leafValues>
            8.0781388282775879e-01 -3.9875331521034241e-01</leafValues></_>
        <_>
          <internalNodes>
            0 -1 50 -3.4364260500296950e-04</internalNodes>
          <leafValues>
            -9.4648367166519165e-01 3.8078218698501587e-01</leafValues></_>
        <_>
          <internalNodes>
            0 -1 45 -3.1293625943362713e-04</internalNodes>
          <leafValues>
            -9.8268705606460571e-01 2.8074550628662109e-01</leafValues></_></weakClassifiers></_>
    <!-- stage 2 -->
    <_>
      <maxWeakCount>8</maxWeakCount>
      <stageThreshold>-5.2340614795684814e-01</stageThreshold>
      <weakClassifiers>
        <_>
          <internalNodes>
            0 -1 78 -3.1445592641830444e-02</internalNodes>
          <leafValues>
            8.1818181276321411e-01 -6.4868605136871338e-01</leafValues></_>
        <_>
          <internalNodes>
            0 -1 69 -4.6574577572755516e-04</internalNodes>
          <leafValues>
            -9.4817119836807251e-01 3.9716532826423645e-01</leafValues></_>
        <_>
          <internalNodes>
            0 -1 27 1.3282723724842072e-02</internalNodes>
          <leafValues>
            -4.4197347760200500e-01 8.4628808498382568e-01</leafValues></_>
        <_>
          <internalNodes>
            0 -1 55 -3.4395320108160377e-04</internalNodes>
          <leafValues>
            -9.2791008949279785e-01 3.6895781755447388e-01</leafValues></_>
        <_>
          <internalNodes>
            0 -1 62 1.7405845574103296e-04</internalNodes>
          <leafValues>
            3.2152688503265381e-01 -9.7576320171356201e-01</leafValues></_>
        <_>
          <internalNodes>
            0 -1 65 2.1098213619552553e-04</internalNodes>
          <leafValues>
            3.2127207517623901e-01 -9.3145722150802612e-01</leafValues></_>
        <_>
          <internalNodes>
            0 -1 44 -2.9603167786262929e-04</internalNodes>
          <leafValues>
            -8.9082020521163940e-01 2.3599356412887573e-01</leafValues></_>
        <_>
          <internalNodes>
            0 -1 48 -2.1691856090910733e-04</internalNodes>
          <leafValues>
            -9.6753966808319092e-01 2.3214189708232880e-01</leafValues></_></weakClassifiers></_>
    <!-- stage 3 -->
    <_>
      <maxWeakCount>9</maxWeakCount>
      <stageThreshold>-4.2557615041732788e-01</stageThreshold>
      <weakClassifiers>
        <_>
          <internalNodes>
            0 -1 85 5.3912818431854248e-02</internalNodes>
          <leafValues>
            -6.7095851898193359e-01 7.2972971200942993e-01</leafValues></_>
        <_>
          <internalNodes>
            0 -1 66 -3.4948019310832024e-04</internalNodes>
          <leafValues>
            -8.6063641309738159e-01 2.6025283336639404e-01</leafValues></_>
        <_>
          <internalNodes>
            0 -1 11 -1.3362945755943656e-03</internalNodes>
          <leafValues>
            -9.8916071653366089e-01 2.1385502815246582e-01</leafValues></_>
        <_>
          <internalNodes>
            0 -1 10 1.0774838738143444e-03</internalNodes>
          <leafValues>
            2.5757017731666565e-01 -9.1163814067840576e-01</leafValues></_>
        <_>
          <internalNodes>
            0 -1 14 -3.7708934396505356e-02</internalNodes>
          <leafValues>
            7.6611733436584473e-01 -3.8010153174400330e-01</leafValues></_>
        <_>
          <internalNodes>
            0 -1 53 -2.4468319679726847e-05</internalNodes>
          <leafValues>
            4.1125994920730591e-01 -7.6412487030029297e-01</leafValues></_>
        <_>
          <internalNodes>
            0 -1 56 -2.7161482721567154e-03</internalNodes>
          <leafValues>
            -9.7442579269409180e-01 2.1287514269351959e-01</leafValues></_>
        <_>
          <internalNodes>
            0 -1 18 -5.3923029918223619e-04</internalNodes>
          <leafValues>
            -9.4521135091781616e-01 2.3801673948764801e-01</leafValues></_>
        <_>
          <internalNodes>
            0 -1 43 2.0785405649803579e-04</internalNodes>
          <leafValues>
            2.0703884959220886e-01 -8.8909697532653809e-01</leafValues></_></weakClassifiers></_>
    <!-- stage 4 -->
    <_>
      <maxWeakCount>11</maxWeakCount>
      <stageThreshold>-7.0597314834594727e-01</stageThreshold>
      <weakClassifiers>
        <_>
          <internalNodes>
            0 -1 0 -5.4200356826186180e-03</internalNodes>
          <leafValues>
            7.4384236335754395e-01 -6.3788300752639771e-01</leafValues></_>
        <_>
          <internalNodes>
            0 -1 92 -3.7453400436788797e-03</internalNodes>
          <leafValues>
            7.8099828958511353e-01 -4.0430226922035217e-01</leafValues></_>
        <_>
          <internalNodes>
            0 -1 8 5.5996299488469958e-04</internalNodes>
          <leafValues>
            -3.4205096960067749e-01 8.0608499050140381e-01</leafValues></_>
        <_>
          <internalNodes>
            0 -1 23 -1.8709951546043158e-03</internalNodes>
          <leafValues>
            -8.4791696071624756e-01 3.5029450058937073e-01</leafValues></_>
        <_>
          <internalNodes>
            0 -1 74 4.6928616939112544e-05</internalNodes>
          <leafValues>
            2.7103984355926514e-01 -8.2668286561965942e-01</leafValues></_>
        <_>
          <internalNodes>
            0 -1 1 -1.3054915471002460e-03</internalNodes>
          <leafValues>
            5.4502636194229126e-01 -4.2163515090942383e-01</leafValues></_>
        <_>
          <internalNodes>
            0 -1 54 1.9923137733712792e-04</internalNodes>
          <leafValues>
            2.6931694149971008e-01 -8.8253539800643921e-01</leafValues></_>
        <_>
          <internalNodes>
            0 -1 41 5.4151512449607253e-04</internalNodes>
          <leafValues>
            1.8949472904205322e-01 -8.6605972051620483e-01</leafValues></_>
        <_>
          <internalNodes>
            0 -1 21 -1.9176128553226590e-03</internalNodes>
          <leafValues>
            -9.4752812385559082e-01 2.4841368198394775e-01</leafValues></_>
        <_>
          <internalNodes>
            0 -1 36 2.7986630448140204e-04</internalNodes>
          <leafValues>
            -4.8597413301467896e-01 4.4596108794212341e-01</leafValues></_>
        <_>
          <internalNodes>
            0 -1 39 -2.6732560945674777e-04</internalNodes>
          <leafValues>
            -8.6852079629898071e-01 2.5731268525123596e-01</leafValues></_></weakClassifiers></_>
    <!-- stage 5 -->
    <_>
      <maxWeakCount>9</maxWeakCount>
      <stageThreshold>-1.1305155754089355e+00</stageThreshold>
      <weakClassifiers>
        <_>
          <internalNodes>
            0 -1 46 -1.2479698052629828e-03</internalNodes>
          <leafValues>
            6.9642859697341919e-01 -6.6427546739578247e-01</leafValues></_>
        <_>
          <internalNodes>
            0 -1 42 1.3158051297068596e-03</internalNodes>
          <leafValues>
            -4.0530475974082947e-01 8.4178662300109863e-01</leafValues></_>
        <_>
          <internalNodes>
            0 -1 89 -6.3195265829563141e-04</internalNodes>
          <leafValues>
            7.6509571075439453e-01 -4.2596277594566345e-01</leafValues></_>
        <_>
          <internalNodes>
            0 -1 6 4.9067903310060501e-03</internalNodes>
          <leafValues>
            -3.3185648918151855e-01 7.7714622020721436e-01</leafValues></_>
        <_>
          <internalNodes>
            0 -1 72 1.0027464013546705e-03</internalNodes>
          <leafValues>
            -3.2747650146484375e-01 8.2317858934402466e-01</leafValues></_>
        <_>
          <internalNodes>
            0 -1 15 6.0657756403088570e-03</internalNodes>
          <leafValues>
            -4.5765534043312073e-01 6.0129839181900024e-01</leafValues></_>
        <_>
          <internalNodes>
            0 -1 73 -7.9910020576789975e-04</internalNodes>
          <leafValues>
            7.2199600934982300e-01 -2.8826510906219482e-01</leafValues></_>
        <_>
          <internalNodes>
            0 -1 70 1.9135060720145702e-03</internalNodes>
          <leafValues>
            -2.4324098229408264e-01 9.3776643276214600e-01</leafValues></_>
        <_>
          <internalNodes>
            0 -1 29 -2.6225930196233094e-04</internalNodes>
          <leafValues>
            6.5281784534454346e-01 -3.1189408898353577e-01</leafValues></_></weakClassifiers></_>
    <!-- stage 6 -->
    <_>
      <maxWeakCount>13</maxWeakCount>
      <stageThreshold>-6.3653701543807983e-01</stageThreshold>
      <weakClassifiers>
        <_>
          <internalNodes>
            0 -1 90 2.2067669779062271e-03</internalNodes>
          <leafValues>
            -5.7417583465576172e-01 5.7512950897216797e-01</leafValues></_>
        <_>
          <internalNodes>
            0 -1 5 -5.2926737815141678e-02</internalNodes>
          <leafValues>
            4.2655104398727417e-01 -5.3104907274246216e-01</leafValues></_>
        <_>
          <internalNodes>
            0 -1 39 2.3494206834584475e-04</internalNodes>
          <leafValues>
            2.5166097283363342e-01 -7.8375649452209473e-01</leafValues></_>
        <_>
          <internalNodes>
            0 -1 88 -4.5021803816780448e-04</internalNodes>
          <leafValues>
            7.3920965194702148e-01 -2.7401778101921082e-01</leafValues></_>
        <_>
          <internalNodes>
            0 -1 59 -1.2883872841484845e-04</internalNodes>
          <leafValues>
            -9.5218580961227417e-01 2.2363908588886261e-01</leafValues></_>
        <_>
          <internalNodes>
            0 -1 20 -2.2619558876613155e-05</internalNodes>
          <leafValues>
            3.1699225306510925e-01 -5.7031857967376709e-01</leafValues></_>
        <_>
          <internalNodes>
            0 -1 67 -3.5131728509441018e-04</internalNodes>
          <leafValues>
            3.4489923715591431e-01 -5.6801140308380127e-01</leafValues></_>
        <_>
          <internalNodes>
            0 -1 86 -1.1034945957362652e-02</internalNodes>
          <leafValues>
            6.2472873926162720e-01 -3.3850857615470886e-01</leafValues></_>
        <_>
          <internalNodes>
            0 -1 63 -1.0431525879539549e-04</internalNodes>
          <leafValues>
            -8.4805703163146973e-01 2.3146845400333405e-01</leafValues></_>
        <_>
          <internalNodes>
            0 -1 91 -7.7564374078065157e-04</internalNodes>
          <leafValues>
            6.9478964805603027e-01 -3.0340719223022461e-01</leafValues></_>
        <_>
          <internalNodes>
            0 -1 51 -5.4720568004995584e-04</internalNodes>
          <leafValues>
            -9.1792744398117065e-01 2.5973716378211975e-01</leafValues></_>
        <_>
          <internalNodes>
            0 -1 71 3.7329894257709384e-04</internalNodes>
          <leafValues>
            -3.6425301432609558e-01 7.1670347452163696e-01</leafValues></_>
        <_>
          <internalNodes>
            0 -1 51 3.9982091402634978e-04</internalNodes>
          <leafValues>
            2.6328492164611816e-01 -9.0926045179367065e-01</leafValues></_></weakClassifiers></_>
    <!-- stage 7 -->
    <_>
      <maxWeakCount>12</maxWeakCount>
      <stageThreshold>-8.8406521081924438e-01</stageThreshold>
      <weakClassifiers>
        <_>
          <internalNodes>
            0 -1 7 -3.6934949457645416e-03</internalNodes>
          <leafValues>
            5.0243902206420898e-01 -5.7262569665908813e-01</leafValues></_>
        <_>
          <internalNodes>
            0 -1 52 -2.2416908905142918e-05</internalNodes>
          <leafValues>
            2.8179126977920532e-01 -6.1904722452163696e-01</leafValues></_>
        <_>
          <internalNodes>
            0 -1 19 -8.3347102627158165e-03</internalNodes>
          <leafValues>
            4.5527714490890503e-01 -4.7307690978050232e-01</leafValues></_>
        <_>
          <internalNodes>
            0 -1 16 3.9694807492196560e-04</internalNodes>
          <leafValues>
            -2.7708271145820618e-01 6.5021485090255737e-01</leafValues></_>
        <_>
          <internalNodes>
            0 -1 80 1.1980626732110977e-03</internalNodes>
          <leafValues>
            -2.6721513271331787e-01 6.5490579605102539e-01</leafValues></_>
        <_>
          <internalNodes>
            0 -1 68 -3.9489514892920852e-04</internalNodes>
          <leafValues>
            -8.3940762281417847e-01 2.8376394510269165e-01</leafValues></_>
        <_>
          <internalNodes>
            0 -1 77 4.7290237853303552e-04</internalNodes>
          <leafValues>
            -3.0121010541915894e-01 6.5578407049179077e-01</leafValues></_>
        <_>
          <internalNodes>
            0 -1 84 2.2442652843892574e-03</internalNodes>
          <leafValues>
            -4.1489514708518982e-01 5.0033956766128540e-01</leafValues></_>
        <_>
          <internalNodes>
            0 -1 35 9.4621696916874498e-05</internalNodes>
          <leafValues>
            2.0614577829837799e-01 -9.0815395116806030e-01</leafValues></_>
        <_>
          <internalNodes>
            0 -1 60 -1.7989594198297709e-05</internalNodes>
          <leafValues>
            3.2695704698562622e-01 -5.5932134389877319e-01</leafValues></_>
        <_>
          <internalNodes>
            0 -1 9 5.2196806063875556e-04</internalNodes>
          <leafValues>
            -4.2286425828933716e-01 4.9123498797416687e-01</leafValues></_>
        <_>
          <internalNodes>
            0 -1 33 -1.8325811251997948e-02</internalNodes>
          <leafValues>
            5.5432897806167603e-01 -3.8415440917015076e-01</leafValues></_></weakClassifiers></_>
    <!-- stage 8 -->
    <_>
      <maxWeakCount>13</maxWeakCount>
      <stageThreshold>-6.6306048631668091e-01</stageThreshold>
      <weakClassifiers>
        <_>
          <internalNodes>
            0 -1 24 3.0973734101280570e-04</internalNodes>
          <leafValues>
            3.1674209237098694e-01 -7.7777779102325439e-01</leafValues></_>
        <_>
          <internalNodes>
            0 -1 47 -6.3966102898120880e-03</internalNodes>
          <leafValues>
            8.3178633451461792e-01 -2.8767898678779602e-01</leafValues></_>
        <_>
          <internalNodes>
            0 -1 26 -4.0164724923670292e-03</internalNodes>
          <leafValues>
            -8.6481583118438721e-01 2.6366105675697327e-01</leafValues></_>
        <_>
          <internalNodes>
            0 -1 58 1.8881034338846803e-04</internalNodes>
          <leafValues>
            2.4947226047515869e-01 -7.5861376523971558e-01</leafValues></_>
        <_>
          <internalNodes>
            0 -1 22 -4.7207911848090589e-05</internalNodes>
          <leafValues>
            4.2856478691101074e-01 -4.7522592544555664e-01</leafValues></_>
        <_>
          <internalNodes>
            0 -1 94 9.9573307670652866e-04</internalNodes>
          <leafValues>
            -3.3401361107826233e-01 6.4961487054824829e-01</leafValues></_>
        <_>
          <internalNodes>
            0 -1 75 -6.6597451223060489e-04</internalNodes>
          <leafValues>
            -9.4935834407806396e-01 2.1973626315593719e-01</leafValues></_>
        <_>
          <internalNodes>
            0 -1 64 -1.1757994798244908e-05</internalNodes>
          <leafValues>
            4.0578350424766541e-01 -5.7257014513015747e-01</leafValues></_>
        <_>
          <internalNodes>
            0 -1 2 -2.8141210786998272e-03</internalNodes>
          <leafValues>
            4.6781954169273376e-01 -4.3856641650199890e-01</leafValues></_>
        <_>
          <internalNodes>
            0 -1 40 -3.1227490399032831e-04</internalNodes>
          <leafValues>
            7.3569923639297485e-01 -3.1574964523315430e-01</leafValues></_>
        <_>
          <internalNodes>
            0 -1 31 -8.1743419286794960e-05</internalNodes>
          <leafValues>
            4.1427499055862427e-01 -5.3077036142349243e-01</leafValues></_>
        <_>
          <internalNodes>
            0 -1 38 3.2150140032172203e-04</internalNodes>
          <leafValues>
            2.2103352844715118e-01 -8.6524194478988647e-01</leafValues></_>
        <_>
          <internalNodes>
            0 -1 87 6.6183385206386447e-04</internalNodes>
          <leafValues>
            1.6014970839023590e-01 -9.6892756223678589e-01</leafValues></_></weakClassifiers></_>
    <!-- stage 9 -->
    <_>
      <maxWeakCount>10</maxWeakCount>
      <stageThreshold>2.0091369748115540e-01</stageThreshold>
      <weakClassifiers>
        <_>
          <internalNodes>
            0 -1 57 1.8888598424382508e-04</internalNodes>
          <leafValues>
            6.9359332323074341e-01 -9.4736844301223755e-01</leafValues></_>
        <_>
          <internalNodes>
            0 -1 28 -8.8782829698175192e-04</internalNodes>
          <leafValues>
            6.5088784694671631e-01 -3.4752738475799561e-01</leafValues></_>
        <_>
          <internalNodes>
            0 -1 32 1.4799216296523809e-04</internalNodes>
          <leafValues>
            3.7728780508041382e-01 -7.0268529653549194e-01</leafValues></_>
        <_>
          <internalNodes>
            0 -1 76 -1.9384156621526927e-04</internalNodes>
          <leafValues>
            6.5088319778442383e-01 -3.7562641501426697e-01</leafValues></_>
        <_>
          <internalNodes>
            0 -1 61 3.4892691473942250e-05</internalNodes>
          <leafValues>
            3.2937091588973999e-01 -7.8477722406387329e-01</leafValues></_>
        <_>
          <internalNodes>
            0 -1 30 4.6583864605054259e-04</internalNodes>
          <leafValues>
            -3.9924773573875427e-01 7.3488426208496094e-01</leafValues></_>
        <_>
          <internalNodes>
            0 -1 12 -4.1215638630092144e-03</internalNodes>
          <leafValues>
            6.2454044818878174e-01 -3.7839755415916443e-01</leafValues></_>
        <_>
          <internalNodes>
            0 -1 93 5.7840282097458839e-03</internalNodes>
          <leafValues>
            -4.1454255580902100e-01 6.3810729980468750e-01</leafValues></_>
        <_>
          <internalNodes>
            0 -1 83 2.2114322928246111e-04</internalNodes>
          <leafValues>
            4.0097752213478088e-01 -7.7120190858840942e-01</leafValues></_>
        <_>
          <internalNodes>
            0 -1 25 2.3584825976286083e-04</internalNodes>
          <leafValues>
            4.4779363274574280e-01 -5.7217931747436523e-01</leafValues></_></weakClassifiers></_></stages>
  <features>
    <_>
      <rects>
        <_>
          0 7 2 14 -1.</_>
        <_>
          1 7 1 14 2.</_></rects>
      <tilted>0</tilted></_>
    <_>
      <rects>
        <_>
          0 9 4 2 -1.</_>
        <_>
          2 9 2 2 2.</_></rects>
      <tilted>0</tilted></_>
    <_>
      <rects>
        <_>
          0 18 2 14 -1.</_>
        <_>
          1 18 1 14 2.</_></rects>
      <tilted>0</tilted></_>
    <_>
      <rects>
        <_>
          0 20 5 12 -1.</_>
        <_>
          0 24 5 4 3.</_></rects>
      <tilted>0</tilted></_>
    <_>
      <rects>
        <_>
          0 22 4 2 -1.</_>
        <_>
          2 22 2 2 2.</_></rects>
      <tilted>0</tilted></_>
    <_>
      <rects>
        <_>
          0 25 30 7 -1.</_>
        <_>
          10 25 10 7 3.</_></rects>
      <tilted>0</tilted></_>
    <_>
      <rects>
        <_>
          0 30 24 2 -1.</_>
        <_>
          0 31 24 1 2.</_></rects>
      <tilted>0</tilted></_>
    <_>
      <rects>
        <_>
          1 3 4 6 -1.</_>
        <_>
          1 3 2 3 2.</_>
        <_>
          3 6 2 3 2.</_></rects>
      <tilted>0</tilted></_>
    <_>
      <rects>
        <_>
          1 8 2 1 -1.</_>
        <_>
          2 8 1 1 2.</_></rects>
      <tilted>0</tilted></_>
    <_>
      <rects>
        <_>
          1 9 4 4 -1.</_>
        <_>
          1 9 2 2 2.</_>
        <_>
          3 11 2 2 2.</_></rects>
      <tilted>0</tilted></_>
    <_>
      <rects>
        <_>
          1 11 12 3 -1.</_>
        <_>
          1 12 12 1 3.</_></rects>
      <tilted>0</tilted></_>
    <_>
      <rects>
        <_>
          1 11 13 3 -1.</_>
        <_>
          1 12 13 1 3.</_></rects>
      <tilted>0</tilted></_>
    <_>
      <rects>
        <_>
          1 26 30 6 -1.</_>
        <_>
          1 28 30 2 3.</_></rects>
      <tilted>0</tilted></_>
    <_>
      <rects>
        <_>
          1 29 30 3 -1.</_>
        <_>
          11 29 10 3 3.</_></rects>
      <tilted>0</tilted></_>
    <_>
      <rects>
        <_>
          2 1 30 2 -1.</_>
        <_>
          12 1 10 2 3.</_></rects>
      <tilted>0</tilted></_>
    <_>
      <rects>
        <_>
          2 4 18 10 -1.</_>
        <_>
          2 4 9 5 2.</_>
        <_>
          11 9 9 5 2.</_></rects>
      <tilted>0</tilted></_>
    <_>
      <rects>
        <_>
          2 7 2 1 -1.</_>
        <_>
          3 7 1 1 2.</_></rects>
      <tilted>0</tilted></_>
    <_>
      <rects>
        <_>
          2 16 6 16 -1.</_>
        <_>
          2 16 3 8 2.</_>
        <_>
          5 24 3 8 2.</_></rects>
      <tilted>0</tilted></_>
    <_>
      <rects>
        <_>
          2 16 8 3 -1.</_>
        <_>
          2 17 8 1 3.</_></rects>
      <tilted>0</tilted></_>
    <_>
      <rects>
        <_>
          2 18 8 12 -1.</_>
        <_>
          2 18 4 6 2.</_>
        <_>
          6 24 4 6 2.</_></rects>
      <tilted>0</tilted></_>
    <_>
      <rects>
        <_>
          3 20 6 2 -1.</_>
        <_>
          3 21 6 1 2.</_></rects>
      <tilted>0</tilted></_>
    <_>
      <rects>
        <_>
          3 21 26 3 -1.</_>
        <_>
          3 22 26 1 3.</_></rects>
      <tilted>0</tilted></_>
    <_>
      <rects>
        <_>
          3 22 11 3 -1.</_>
        <_>
          3 23 11 1 3.</_></rects>
      <tilted>0</tilted></_>
    <_>
      <rects>
        <_>
          4 12 5 6 -1.</_>
        <_>
          4 14 5 2 3.</_></rects>
      <tilted>0</tilted></_>
    <_>
      <rects>
        <_>
          4 13 5 3 -1.</_>
        <_>
          4 14 5 1 3.</_></rects>
      <tilted>0</tilted></_>
    <_>
      <rects>
        <_>
          4 14 19 6 -1.</_>
        <_>
          4 16 19 2 3.</_></rects>
      <tilted>0</tilted></_>
    <_>
      <rects>
        <_>
          4 24 12 2 -1.</_>
        <_>
          8 24 4 2 3.</_></rects>
      <tilted>0</tilted></_>
    <_>
      <rects>
        <_>
          4 24 4 8 -1.</_>
        <_>
          4 28 4 4 2.</_></rects>
      <tilted>0</tilted></_>
    <_>
      <rects>
        <_>
          5 3 3 6 -1.</_>
        <_>
          5 5 3 2 3.</_></rects>
      <tilted>0</tilted></_>
    <_>
      <rects>
        <_>
          6 3 2 3 -1.</_>
        <_>
          6 4 2 1 3.</_></rects>
      <tilted>0</tilted></_>
    <_>
      <rects>
        <_>
          7 1 3 2 -1.</_>
        <_>
          7 2 3 1 2.</_></rects>
      <tilted>0</tilted></_>
    <_>
      <rects>
        <_>
          7 5 9 3 -1.</_>
        <_>
          10 5 3 3 3.</_></rects>
      <tilted>0</tilted></_>
    <_>
      <rects>
        <_>
          7 7 3 4 -1.</_>
        <_>
          8 7 1 4 3.</_></rects>
      <tilted>0</tilted></_>
    <_>
      <rects>
        <_>
          7 15 24 8 -1.</_>
        <_>
          7 19 24 4 2.</_></rects>
      <tilted>0</tilted></_>
    <_>
      <rects>
        <_>
          8 0 16 4 -1.</_>
        <_>
          8 2 16 2 2.</_></rects>
      <tilted>0</tilted></_>
    <_>
      <rects>
        <_>
          8 9 3 1 -1.</_>
        <_>
          9 9 1 1 3.</_></rects>
      <tilted>0</tilted></_>
    <_>
      <rects>
        <_>
          8 30 2 2 -1.</_>
        <_>
          8 31 2 1 2.</_></rects>
      <tilted>0</tilted></_>
    <_>
      <rects>
        <_>
          9 0 15 4 -1.</_>
        <_>
          9 2 15 2 2.</_></rects>
      <tilted>0</tilted></_>
    <_>
      <rects>
        <_>
          9 5 2 4 -1.</_>
        <_>
          9 5 1 2 2.</_>
        <_>
          10 7 1 2 2.</_></rects>
      <tilted>0</tilted></_>
    <_>
      <rects>
        <_>
          9 8 3 3 -1.</_>
        <_>
          9 9 3 1 3.</_></rects>
      <tilted>0</tilted></_>
    <_>
      <rects>
        <_>
          9 29 2 2 -1.</_>
        <_>
          9 30 2 1 2.</_></rects>
      <tilted>0</tilted></_>
    <_>
      <rects>
        <_>
          10 21 19 3 -1.</_>
        <_>
          10 22 19 1 3.</_></rects>
      <tilted>0</tilted></_>
    <_>
      <rects>
        <_>
          11 0 3 3 -1.</_>
        <_>
          11 1 3 1 3.</_></rects>
      <tilted>0</tilted></_>
    <_>
      <rects>
        <_>
          11 11 3 2 -1.</_>
        <_>
          12 11 1 2 3.</_></rects>
      <tilted>0</tilted></_>
    <_>
      <rects>
        <_>
          11 11 3 5 -1.</_>
        <_>
          12 11 1 5 3.</_></rects>
      <tilted>0</tilted></_>
    <_>
      <rects>
        <_>
          11 23 3 3 -1.</_>
        <_>
          12 23 1 3 3.</_></rects>
      <tilted>0</tilted></_>
    <_>
      <rects>
        <_>
          12 0 6 3 -1.</_>
        <_>
          12 1 6 1 3.</_></rects>
      <tilted>0</tilted></_>
    <_>
      <rects>
        <_>
          12 0 10 3 -1.</_>
        <_>
          12 1 10 1 3.</_></rects>
      <tilted>0</tilted></_>
    <_>
      <rects>
        <_>
          12 13 3 2 -1.</_>
        <_>
          13 13 1 2 3.</_></rects>
      <tilted>0</tilted></_>
    <_>
      <rects>
        <_>
          12 16 12 1 -1.</_>
        <_>
          16 16 4 1 3.</_></rects>
      <tilted>0</tilted></_>
    <_>
      <rects>
        <_>
          12 23 3 4 -1.</_>
        <_>
          13 23 1 4 3.</_></rects>
      <tilted>0</tilted></_>
    <_>
      <rects>
        <_>
          13 1 3 5 -1.</_>
        <_>
          14 1 1 5 3.</_></rects>
      <tilted>0</tilted></_>
    <_>
      <rects>
        <_>
          13 14 6 1 -1.</_>
        <_>
          15 14 2 1 3.</_></rects>
      <tilted>0</tilted></_>
    <_>
      <rects>
        <_>
          13 15 6 2 -1.</_>
        <_>
          15 15 2 2 3.</_></rects>
      <tilted>0</tilted></_>
    <_>
      <rects>
        <_>
          13 17 6 3 -1.</_>
        <_>
          15 17 2 3 3.</_></rects>
      <tilted>0</tilted></_>
    <_>
      <rects>
        <_>
          13 24 3 3 -1.</_>
        <_>
          14 24 1 3 3.</_></rects>
      <tilted>0</tilted></_>
    <_>
      <rects>
        <_>
          14 0 3 32 -1.</_>
        <_>
          15 0 1 32 3.</_></rects>
      <tilted>0</tilted></_>
    <_>
      <rects>
        <_>
          14 19 3 3 -1.</_>
        <_>
          15 19 1 3 3.</_></rects>
      <tilted>0</tilted></_>
    <_>
      <rects>
        <_>
          15 6 4 3 -1.</_>
        <_>
          15 7 4 1 3.</_></rects>
      <tilted>0</tilted></_>
    <_>
      <rects>
        <_>
          15 7 3 1 -1.</_>
        <_>
          16 7 1 1 3.</_></rects>
      <tilted>0</tilted></_>
    <_>
      <rects>
        <_>
          15 14 1 6 -1.</_>
        <_>
          15 16 1 2 3.</_></rects>
      <tilted>0</tilted></_>
    <_>
      <rects>
        <_>
          15 16 6 2 -1.</_>
        <_>
          17 16 2 2 3.</_></rects>
      <tilted>0</tilted></_>
    <_>
      <rects>
        <_>
          15 24 3 2 -1.</_>
        <_>
          16 24 1 2 3.</_></rects>
      <tilted>0</tilted></_>
    <_>
      <rects>
        <_>
          16 17 2 4 -1.</_>
        <_>
          16 17 1 2 2.</_>
        <_>
          17 19 1 2 2.</_></rects>
      <tilted>0</tilted></_>
    <_>
      <rects>
        <_>
          16 17 6 4 -1.</_>
        <_>
          18 17 2 4 3.</_></rects>
      <tilted>0</tilted></_>
    <_>
      <rects>
        <_>
          16 23 3 3 -1.</_>
        <_>
          17 23 1 3 3.</_></rects>
      <tilted>0</tilted></_>
    <_>
      <rects>
        <_>
          16 23 3 4 -1.</_>
        <_>
          17 23 1 4 3.</_></rects>
      <tilted>0</tilted></_>
    <_>
      <rects>
        <_>
          17 0 1 12 -1.</_>
        <_>
          17 4 1 4 3.</_></rects>
      <tilted>0</tilted></_>
    <_>
      <rects>
        <_>
          17 4 3 5 -1.</_>
        <_>
          18 4 1 5 3.</_></rects>
      <tilted>0</tilted></_>
    <_>
      <rects>
        <_>
          17 14 2 3 -1.</_>
        <_>
          17 15 2 1 3.</_></rects>
      <tilted>0</tilted></_>
    <_>
      <rects>
        <_>
          18 0 4 2 -1.</_>
        <_>
          18 1 4 1 2.</_></rects>
      <tilted>0</tilted></_>
    <_>
      <rects>
        <_>
          18 30 1 2 -1.</_>
        <_>
          18 31 1 1 2.</_></rects>
      <tilted>0</tilted></_>
    <_>
      <rects>
        <_>
          18 30 8 2 -1.</_>
        <_>
          18 30 4 1 2.</_>
        <_>
          22 31 4 1 2.</_></rects>
      <tilted>0</tilted></_>
    <_>
      <rects>
        <_>
          19 2 6 2 -1.</_>
        <_>
          19 2 3 1 2.</_>
        <_>
          22 3 3 1 2.</_></rects>
      <tilted>0</tilted></_>
    <_>
      <rects>
        <_>
          19 8 3 1 -1.</_>
        <_>
          20 8 1 1 3.</_></rects>
      <tilted>0</tilted></_>
    <_>
      <rects>
        <_>
          19 8 3 5 -1.</_>
        <_>
          20 8 1 5 3.</_></rects>
      <tilted>0</tilted></_>
    <_>
      <rects>
        <_>
          20 1 1 3 -1.</_>
        <_>
          20 2 1 1 3.</_></rects>
      <tilted>0</tilted></_>
    <_>
      <rects>
        <_>
          21 0 1 2 -1.</_>
        <_>
          21 1 1 1 2.</_></rects>
      <tilted>0</tilted></_>
    <_>
      <rects>
        <_>
          21 3 10 16 -1.</_>
        <_>
          21 3 5 8 2.</_>
        <_>
          26 11 5 8 2.</_></rects>
      <tilted>0</tilted></_>
    <_>
      <rects>
        <_>
          21 8 1 3 -1.</_>
        <_>
          21 9 1 1 3.</_></rects>
      <tilted>0</tilted></_>
    <_>
      <rects>
        <_>
          22 1 4 2 -1.</_>
        <_>
          22 1 2 1 2.</_>
        <_>
          24 2 2 1 2.</_></rects>
      <tilted>0</tilted></_>
    <_>
      <rects>
        <_>
          22 2 4 2 -1.</_>
        <_>
          22 2 2 1 2.</_>
        <_>
          24 3 2 1 2.</_></rects>
      <tilted>0</tilted></_>
    <_>
      <rects>
        <_>
          22 12 10 14 -1.</_>
        <_>
          22 19 10 7 2.</_></rects>
      <tilted>0</tilted></_>
    <_>
      <rects>
        <_>
          23 8 4 3 -1.</_>
        <_>
          23 9 4 1 3.</_></rects>
      <tilted>0</tilted></_>
    <_>
      <rects>
        <_>
          23 28 8 1 -1.</_>
        <_>
          27 28 4 1 2.</_></rects>
      <tilted>0</tilted></_>
    <_>
      <rects>
        <_>
          24 6 8 25 -1.</_>
        <_>
          28 6 4 25 2.</_></rects>
      <tilted>0</tilted></_>
    <_>
      <rects>
        <_>
          25 6 6 20 -1.</_>
        <_>
          27 6 2 20 3.</_></rects>
      <tilted>0</tilted></_>
    <_>
      <rects>
        <_>
          26 17 5 3 -1.</_>
        <_>
          26 18 5 1 3.</_></rects>
      <tilted>0</tilted></_>
    <_>
      <rects>
        <_>
          27 5 2 1 -1.</_>
        <_>
          28 5 1 1 2.</_></rects>
      <tilted>0</tilted></_>
    <_>
      <rects>
        <_>
          28 7 2 6 -1.</_>
        <_>
          28 7 1 3 2.</_>
        <_>
          29 10 1 3 2.</_></rects>
      <tilted>0</tilted></_>
    <_>
      <rects>
        <_>
          29 5 2 6 -1.</_>
        <_>
          29 5 1 3 2.</_>
        <_>
          30 8 1 3 2.</_></rects>
      <tilted>0</tilted></_>
    <_>
      <rects>
        <_>
          29 8 2 2 -1.</_>
        <_>
          30 8 1 2 2.</_></rects>
      <tilted>0</tilted></_>
    <_>
      <rects>
        <_>
          29 10 3 12 -1.</_>
        <_>
          30 10 1 12 3.</_></rects>
      <tilted>0</tilted></_>
    <_>
      <rects>
        <_>
          30 2 2 20 -1.</_>
        <_>
          31 2 1 20 2.</_></rects>
      <tilted>0</tilted></_>
    <_>
      <rects>
        <_>
          30 8 2 4 -1.</_>
        <_>
          30 8 1 2 2.</_>
        <_>
          31 10 1 2 2.</_></rects>
      <tilted>0</tilted></_>
    <_>
      <rects>
        <_>
          30 12 2 8 -1.</_>
        <_>
          31 12 1 8 2.</_></rects>
      <tilted>0</tilted></_></features></cascade>
</opencv_storage>
