<?xml version="1.0"?>
<opencv_storage>
<!-- Created using Computer Vision Toolbox(tm) for MATLAB(R) -->
<!-- Version 9.12.0.1927505 (R2022a) Update 1 -->
<!-- Compatible with OpenCV 4.5 -->
<cascade>
  <stageType>BOOST</stageType>
  <featureType>HAAR</featureType>
  <height>32</height>
  <width>32</width>
  <stageParams>
    <boostType>GAB</boostType>
    <minHitRate>9.9500000476837158e-01</minHitRate>
    <maxFalseAlarm>1.0000000149011612e-01</maxFalseAlarm>
    <weightTrimRate>9.4999999999999996e-01</weightTrimRate>
    <maxDepth>1</maxDepth>
    <maxWeakCount>100</maxWeakCount></stageParams>
  <featureParams>
    <maxCatCount>0</maxCatCount>
    <featSize>1</featSize>
    <mode>BASIC</mode></featureParams>
  <stageNum>10</stageNum>
  <stages>
    <!-- stage 0 -->
    <_>
      <maxWeakCount>5</maxWeakCount>
      <stageThreshold>-2.6169231534004211e-01</stageThreshold>
      <weakClassifiers>
        <_>
          <internalNodes>
            0 -1 0 -8.8244993239641190e-03</internalNodes>
          <leafValues>
            8.4615385532379150e-01 -5.9322035312652588e-01</leafValues></_>
        <_>
          <internalNodes>
            0 -1 13 -2.6229338254779577e-03</internalNodes>
          <leafValues>
            5.6150341033935547e-01 -8.8509517908096313e-01</leafValues></_>
        <_>
          <internalNodes>
            0 -1 39 3.1402261811308563e-04</internalNodes>
          <leafValues>
            3.9119765162467957e-01 -9.2782312631607056e-01</leafValues></_>
        <_>
          <internalNodes>
            0 -1 30 2.4969241349026561e-04</internalNodes>
          <leafValues>
            3.4504300355911255e-01 -1.</leafValues></_>
        <_>
          <internalNodes>
            0 -1 6 9.3629339244216681e-04</internalNodes>
          <leafValues>
            3.5280475020408630e-01 -9.8555451631546021e-01</leafValues></_></weakClassifiers></_>
    <!-- stage 1 -->
    <_>
      <maxWeakCount>6</maxWeakCount>
      <stageThreshold>-1.3138534128665924e-01</stageThreshold>
      <weakClassifiers>
        <_>
          <internalNodes>
            0 -1 16 -7.3510822840034962e-03</internalNodes>
          <leafValues>
            6.4705884456634521e-01 -6.3636362552642822e-01</leafValues></_>
        <_>
          <internalNodes>
            0 -1 11 5.4708798415958881e-03</internalNodes>
          <leafValues>
            -4.3852686882019043e-01 9.6486556529998779e-01</leafValues></_>
        <_>
          <internalNodes>
            0 -1 15 -8.4854057058691978e-04</internalNodes>
          <leafValues>
            5.7975643873214722e-01 -5.8854299783706665e-01</leafValues></_>
        <_>
          <internalNodes>
            0 -1 3 1.4346742536872625e-03</internalNodes>
          <leafValues>
            -4.3125274777412415e-01 9.0348500013351440e-01</leafValues></_>
        <_>
          <internalNodes>
            0 -1 28 5.8085144701180980e-05</internalNodes>
          <leafValues>
            4.1764441132545471e-01 -9.7001487016677856e-01</leafValues></_>
        <_>
          <internalNodes>
            0 -1 34 3.3980346051976085e-04</internalNodes>
          <leafValues>
            3.7735709547996521e-01 -8.7878823280334473e-01</leafValues></_></weakClassifiers></_>
    <!-- stage 2 -->
    <_>
      <maxWeakCount>5</maxWeakCount>
      <stageThreshold>-2.2167079150676727e-01</stageThreshold>
      <weakClassifiers>
        <_>
          <internalNodes>
            0 -1 52 -2.9924190603196621e-03</internalNodes>
          <leafValues>
            8.6206895112991333e-01 -6.3478261232376099e-01</leafValues></_>
        <_>
          <internalNodes>
            0 -1 50 -1.3722807634621859e-03</internalNodes>
          <leafValues>
            1. -4.2391169071197510e-01</leafValues></_>
        <_>
          <internalNodes>
            0 -1 48 -2.6238821446895599e-03</internalNodes>
          <leafValues>
            6.9246262311935425e-01 -5.2885144948959351e-01</leafValues></_>
        <_>
          <internalNodes>
            0 -1 7 -2.8172103338874876e-04</internalNodes>
          <leafValues>
            6.0019588470458984e-01 -6.4667785167694092e-01</leafValues></_>
        <_>
          <internalNodes>
            0 -1 5 5.1670719403773546e-04</internalNodes>
          <leafValues>
            -4.5563501119613647e-01 8.0729150772094727e-01</leafValues></_></weakClassifiers></_>
    <!-- stage 3 -->
    <_>
      <maxWeakCount>7</maxWeakCount>
      <stageThreshold>1.7754634842276573e-02</stageThreshold>
      <weakClassifiers>
        <_>
          <internalNodes>
            0 -1 12 -1.0178417433053255e-03</internalNodes>
          <leafValues>
            1. -5.4838711023330688e-01</leafValues></_>
        <_>
          <internalNodes>
            0 -1 38 -7.8122661216184497e-04</internalNodes>
          <leafValues>
            -6.9248986244201660e-01 5.0099253654479980e-01</leafValues></_>
        <_>
          <internalNodes>
            0 -1 4 -1.9958054646849632e-02</internalNodes>
          <leafValues>
            6.1492979526519775e-01 -6.2452000379562378e-01</leafValues></_>
        <_>
          <internalNodes>
            0 -1 31 -1.1233521945541725e-05</internalNodes>
          <leafValues>
            5.3227424621582031e-01 -8.0444127321243286e-01</leafValues></_>
        <_>
          <internalNodes>
            0 -1 9 3.0753755709156394e-04</internalNodes>
          <leafValues>
            4.7025597095489502e-01 -8.5746145248413086e-01</leafValues></_>
        <_>
          <internalNodes>
            0 -1 33 1.3244146248325706e-04</internalNodes>
          <leafValues>
            3.5924822092056274e-01 -9.0526276826858521e-01</leafValues></_>
        <_>
          <internalNodes>
            0 -1 53 6.4163270872086287e-04</internalNodes>
          <leafValues>
            -6.0412341356277466e-01 6.0964077711105347e-01</leafValues></_></weakClassifiers></_>
    <!-- stage 4 -->
    <_>
      <maxWeakCount>5</maxWeakCount>
      <stageThreshold>-1.8847021460533142e-01</stageThreshold>
      <weakClassifiers>
        <_>
          <internalNodes>
            0 -1 49 -2.4265632033348083e-02</internalNodes>
          <leafValues>
            9.2000001668930054e-01 -5.9663867950439453e-01</leafValues></_>
        <_>
          <internalNodes>
            0 -1 29 -1.9179037772119045e-03</internalNodes>
          <leafValues>
            -9.5679605007171631e-01 4.7315651178359985e-01</leafValues></_>
        <_>
          <internalNodes>
            0 -1 14 -1.7898014048114419e-03</internalNodes>
          <leafValues>
            -8.9798557758331299e-01 4.1626071929931641e-01</leafValues></_>
        <_>
          <internalNodes>
            0 -1 42 2.3607982438988984e-04</internalNodes>
          <leafValues>
            4.8756173253059387e-01 -8.9329415559768677e-01</leafValues></_>
        <_>
          <internalNodes>
            0 -1 23 7.0201023481786251e-04</internalNodes>
          <leafValues>
            4.1204535961151123e-01 -9.5397359132766724e-01</leafValues></_></weakClassifiers></_>
    <!-- stage 5 -->
    <_>
      <maxWeakCount>6</maxWeakCount>
      <stageThreshold>-4.1305285692214966e-01</stageThreshold>
      <weakClassifiers>
        <_>
          <internalNodes>
            0 -1 32 3.2033903989940882e-03</internalNodes>
          <leafValues>
            9.3023255467414856e-02 -9.6551722288131714e-01</leafValues></_>
        <_>
          <internalNodes>
            0 -1 18 -1.1233521945541725e-05</internalNodes>
          <leafValues>
            4.3727037310600281e-01 -7.7051401138305664e-01</leafValues></_>
        <_>
          <internalNodes>
            0 -1 35 -1.4176635304465890e-03</internalNodes>
          <leafValues>
            -9.5867055654525757e-01 3.4828236699104309e-01</leafValues></_>
        <_>
          <internalNodes>
            0 -1 47 -2.3654730466660112e-04</internalNodes>
          <leafValues>
            -9.3185174465179443e-01 3.8909476995468140e-01</leafValues></_>
        <_>
          <internalNodes>
            0 -1 45 -9.1315433382987976e-04</internalNodes>
          <leafValues>
            -8.0850452184677124e-01 4.5846465229988098e-01</leafValues></_>
        <_>
          <internalNodes>
            0 -1 20 7.7697157394140959e-05</internalNodes>
          <leafValues>
            4.9546155333518982e-01 -8.1824177503585815e-01</leafValues></_></weakClassifiers></_>
    <!-- stage 6 -->
    <_>
      <maxWeakCount>5</maxWeakCount>
      <stageThreshold>-9.7435623407363892e-02</stageThreshold>
      <weakClassifiers>
        <_>
          <internalNodes>
            0 -1 27 3.3875599503517151e-02</internalNodes>
          <leafValues>
            -5.3600001335144043e-01 1.</leafValues></_>
        <_>
          <internalNodes>
            0 -1 37 -3.8442207733169198e-04</internalNodes>
          <leafValues>
            -1. 3.9420938491821289e-01</leafValues></_>
        <_>
          <internalNodes>
            0 -1 46 -4.0563690708950162e-04</internalNodes>
          <leafValues>
            -1. 3.0888092517852783e-01</leafValues></_>
        <_>
          <internalNodes>
            0 -1 21 -1.3760954971075989e-05</internalNodes>
          <leafValues>
            5.5323523283004761e-01 -6.6658759117126465e-01</leafValues></_>
        <_>
          <internalNodes>
            0 -1 44 -2.8880651370855048e-05</internalNodes>
          <leafValues>
            5.1952028274536133e-01 -8.1776118278503418e-01</leafValues></_></weakClassifiers></_>
    <!-- stage 7 -->
    <_>
      <maxWeakCount>5</maxWeakCount>
      <stageThreshold>-1.6459201276302338e-01</stageThreshold>
      <weakClassifiers>
        <_>
          <internalNodes>
            0 -1 1 -4.0870481170713902e-03</internalNodes>
          <leafValues>
            7.1428573131561279e-01 -5.8620691299438477e-01</leafValues></_>
        <_>
          <internalNodes>
            0 -1 8 3.5654369276016951e-03</internalNodes>
          <leafValues>
            -3.8191762566566467e-01 8.9141291379928589e-01</leafValues></_>
        <_>
          <internalNodes>
            0 -1 26 -4.1253771632909775e-03</internalNodes>
          <leafValues>
            8.7984663248062134e-01 -3.8585999608039856e-01</leafValues></_>
        <_>
          <internalNodes>
            0 -1 19 -2.6510783936828375e-04</internalNodes>
          <leafValues>
            -1. 4.1733714938163757e-01</leafValues></_>
        <_>
          <internalNodes>
            0 -1 41 2.9589375481009483e-03</internalNodes>
          <leafValues>
            -4.9365130066871643e-01 8.2927751541137695e-01</leafValues></_></weakClassifiers></_>
    <!-- stage 8 -->
    <_>
      <maxWeakCount>4</maxWeakCount>
      <stageThreshold>1.0765177011489868e-01</stageThreshold>
      <weakClassifiers>
        <_>
          <internalNodes>
            0 -1 36 1.8419060506857932e-04</internalNodes>
          <leafValues>
            1.4634145796298981e-01 -9.6774190664291382e-01</leafValues></_>
        <_>
          <internalNodes>
            0 -1 43 -9.1270034317858517e-05</internalNodes>
          <leafValues>
            -9.1385644674301147e-01 2.4244944751262665e-01</leafValues></_>
        <_>
          <internalNodes>
            0 -1 25 2.2778872516937554e-04</internalNodes>
          <leafValues>
            2.7411052584648132e-01 -9.5104777812957764e-01</leafValues></_>
        <_>
          <internalNodes>
            0 -1 51 1.2879044516012073e-04</internalNodes>
          <leafValues>
            -5.5524969100952148e-01 7.0971852540969849e-01</leafValues></_></weakClassifiers></_>
    <!-- stage 9 -->
    <_>
      <maxWeakCount>6</maxWeakCount>
      <stageThreshold>-8.0815702676773071e-02</stageThreshold>
      <weakClassifiers>
        <_>
          <internalNodes>
            0 -1 2 -1.6924396157264709e-02</internalNodes>
          <leafValues>
            1. -5.0413221120834351e-01</leafValues></_>
        <_>
          <internalNodes>
            0 -1 40 1.5710474690422416e-03</internalNodes>
          <leafValues>
            3.8613069057464600e-01 -9.7593146562576294e-01</leafValues></_>
        <_>
          <internalNodes>
            0 -1 24 -6.1547185759991407e-04</internalNodes>
          <leafValues>
            -9.8102790117263794e-01 2.8167581558227539e-01</leafValues></_>
        <_>
          <internalNodes>
            0 -1 22 -7.9407193697988987e-04</internalNodes>
          <leafValues>
            -9.1048216819763184e-01 3.2735368609428406e-01</leafValues></_>
        <_>
          <internalNodes>
            0 -1 17 5.5081525351852179e-04</internalNodes>
          <leafValues>
            3.0893012881278992e-01 -9.3118846416473389e-01</leafValues></_>
        <_>
          <internalNodes>
            0 -1 10 -6.7841203417629004e-05</internalNodes>
          <leafValues>
            3.5934486985206604e-01 -8.0160051584243774e-01</leafValues></_></weakClassifiers></_></stages>
  <features>
    <_>
      <rects>
        <_>
          0 0 2 22 -1.</_>
        <_>
          1 0 1 22 2.</_></rects>
      <tilted>0</tilted></_>
    <_>
      <rects>
        <_>
          0 11 2 7 -1.</_>
        <_>
          1 11 1 7 2.</_></rects>
      <tilted>0</tilted></_>
    <_>
      <rects>
        <_>
          0 22 6 6 -1.</_>
        <_>
          3 22 3 6 2.</_></rects>
      <tilted>0</tilted></_>
    <_>
      <rects>
        <_>
          1 8 2 8 -1.</_>
        <_>
          1 8 1 4 2.</_>
        <_>
          2 12 1 4 2.</_></rects>
      <tilted>0</tilted></_>
    <_>
      <rects>
        <_>
          2 2 25 12 -1.</_>
        <_>
          2 6 25 4 3.</_></rects>
      <tilted>0</tilted></_>
    <_>
      <rects>
        <_>
          2 5 2 4 -1.</_>
        <_>
          2 5 1 2 2.</_>
        <_>
          3 7 1 2 2.</_></rects>
      <tilted>0</tilted></_>
    <_>
      <rects>
        <_>
          3 19 24 2 -1.</_>
        <_>
          3 20 24 1 2.</_></rects>
      <tilted>0</tilted></_>
    <_>
      <rects>
        <_>
          3 29 11 3 -1.</_>
        <_>
          3 30 11 1 3.</_></rects>
      <tilted>0</tilted></_>
    <_>
      <rects>
        <_>
          4 0 12 2 -1.</_>
        <_>
          4 0 6 1 2.</_>
        <_>
          10 1 6 1 2.</_></rects>
      <tilted>0</tilted></_>
    <_>
      <rects>
        <_>
          4 18 6 3 -1.</_>
        <_>
          4 19 6 1 3.</_></rects>
      <tilted>0</tilted></_>
    <_>
      <rects>
        <_>
          4 19 2 4 -1.</_>
        <_>
          4 21 2 2 2.</_></rects>
      <tilted>0</tilted></_>
    <_>
      <rects>
        <_>
          5 0 13 2 -1.</_>
        <_>
          5 1 13 1 2.</_></rects>
      <tilted>0</tilted></_>
    <_>
      <rects>
        <_>
          5 3 4 2 -1.</_>
        <_>
          5 3 2 1 2.</_>
        <_>
          7 4 2 1 2.</_></rects>
      <tilted>0</tilted></_>
    <_>
      <rects>
        <_>
          6 21 22 4 -1.</_>
        <_>
          6 23 22 2 2.</_></rects>
      <tilted>0</tilted></_>
    <_>
      <rects>
        <_>
          7 21 6 6 -1.</_>
        <_>
          7 21 3 3 2.</_>
        <_>
          10 24 3 3 2.</_></rects>
      <tilted>0</tilted></_>
    <_>
      <rects>
        <_>
          10 23 4 6 -1.</_>
        <_>
          10 26 4 3 2.</_></rects>
      <tilted>0</tilted></_>
    <_>
      <rects>
        <_>
          11 0 10 4 -1.</_>
        <_>
          11 2 10 2 2.</_></rects>
      <tilted>0</tilted></_>
    <_>
      <rects>
        <_>
          11 6 14 3 -1.</_>
        <_>
          11 7 14 1 3.</_></rects>
      <tilted>0</tilted></_>
    <_>
      <rects>
        <_>
          11 23 1 2 -1.</_>
        <_>
          11 24 1 1 2.</_></rects>
      <tilted>0</tilted></_>
    <_>
      <rects>
        <_>
          11 26 3 5 -1.</_>
        <_>
          12 26 1 5 3.</_></rects>
      <tilted>0</tilted></_>
    <_>
      <rects>
        <_>
          12 1 9 17 -1.</_>
        <_>
          15 1 3 17 3.</_></rects>
      <tilted>0</tilted></_>
    <_>
      <rects>
        <_>
          12 16 2 2 -1.</_>
        <_>
          12 17 2 1 2.</_></rects>
      <tilted>0</tilted></_>
    <_>
      <rects>
        <_>
          12 17 3 14 -1.</_>
        <_>
          13 17 1 14 3.</_></rects>
      <tilted>0</tilted></_>
    <_>
      <rects>
        <_>
          13 1 6 2 -1.</_>
        <_>
          15 1 2 2 3.</_></rects>
      <tilted>0</tilted></_>
    <_>
      <rects>
        <_>
          13 3 3 10 -1.</_>
        <_>
          14 3 1 10 3.</_></rects>
      <tilted>0</tilted></_>
    <_>
      <rects>
        <_>
          13 4 3 7 -1.</_>
        <_>
          14 4 1 7 3.</_></rects>
      <tilted>0</tilted></_>
    <_>
      <rects>
        <_>
          14 0 9 2 -1.</_>
        <_>
          14 1 9 1 2.</_></rects>
      <tilted>0</tilted></_>
    <_>
      <rects>
        <_>
          14 1 18 3 -1.</_>
        <_>
          23 1 9 3 2.</_></rects>
      <tilted>0</tilted></_>
    <_>
      <rects>
        <_>
          14 4 2 2 -1.</_>
        <_>
          14 4 1 1 2.</_>
        <_>
          15 5 1 1 2.</_></rects>
      <tilted>0</tilted></_>
    <_>
      <rects>
        <_>
          14 8 3 13 -1.</_>
        <_>
          15 8 1 13 3.</_></rects>
      <tilted>0</tilted></_>
    <_>
      <rects>
        <_>
          14 9 3 10 -1.</_>
        <_>
          15 9 1 10 3.</_></rects>
      <tilted>0</tilted></_>
    <_>
      <rects>
        <_>
          14 28 1 2 -1.</_>
        <_>
          14 29 1 1 2.</_></rects>
      <tilted>0</tilted></_>
    <_>
      <rects>
        <_>
          15 1 6 12 -1.</_>
        <_>
          17 1 2 12 3.</_></rects>
      <tilted>0</tilted></_>
    <_>
      <rects>
        <_>
          15 9 15 3 -1.</_>
        <_>
          15 10 15 1 3.</_></rects>
      <tilted>0</tilted></_>
    <_>
      <rects>
        <_>
          15 12 3 19 -1.</_>
        <_>
          16 12 1 19 3.</_></rects>
      <tilted>0</tilted></_>
    <_>
      <rects>
        <_>
          15 19 3 12 -1.</_>
        <_>
          16 19 1 12 3.</_></rects>
      <tilted>0</tilted></_>
    <_>
      <rects>
        <_>
          16 4 3 4 -1.</_>
        <_>
          17 4 1 4 3.</_></rects>
      <tilted>0</tilted></_>
    <_>
      <rects>
        <_>
          16 4 3 5 -1.</_>
        <_>
          17 4 1 5 3.</_></rects>
      <tilted>0</tilted></_>
    <_>
      <rects>
        <_>
          16 21 9 6 -1.</_>
        <_>
          16 23 9 2 3.</_></rects>
      <tilted>0</tilted></_>
    <_>
      <rects>
        <_>
          18 7 3 3 -1.</_>
        <_>
          18 8 3 1 3.</_></rects>
      <tilted>0</tilted></_>
    <_>
      <rects>
        <_>
          19 1 1 15 -1.</_>
        <_>
          19 6 1 5 3.</_></rects>
      <tilted>0</tilted></_>
    <_>
      <rects>
        <_>
          20 1 6 4 -1.</_>
        <_>
          20 3 6 2 2.</_></rects>
      <tilted>0</tilted></_>
    <_>
      <rects>
        <_>
          20 18 8 3 -1.</_>
        <_>
          20 19 8 1 3.</_></rects>
      <tilted>0</tilted></_>
    <_>
      <rects>
        <_>
          20 25 3 1 -1.</_>
        <_>
          21 25 1 1 3.</_></rects>
      <tilted>0</tilted></_>
    <_>
      <rects>
        <_>
          23 1 6 2 -1.</_>
        <_>
          23 1 3 1 2.</_>
        <_>
          26 2 3 1 2.</_></rects>
      <tilted>0</tilted></_>
    <_>
      <rects>
        <_>
          23 5 3 18 -1.</_>
        <_>
          24 5 1 18 3.</_></rects>
      <tilted>0</tilted></_>
    <_>
      <rects>
        <_>
          24 12 6 3 -1.</_>
        <_>
          24 13 6 1 3.</_></rects>
      <tilted>0</tilted></_>
    <_>
      <rects>
        <_>
          25 13 4 3 -1.</_>
        <_>
          25 14 4 1 3.</_></rects>
      <tilted>0</tilted></_>
    <_>
      <rects>
        <_>
          26 4 6 10 -1.</_>
        <_>
          28 4 2 10 3.</_></rects>
      <tilted>0</tilted></_>
    <_>
      <rects>
        <_>
          29 1 2 30 -1.</_>
        <_>
          29 11 2 10 3.</_></rects>
      <tilted>0</tilted></_>
    <_>
      <rects>
        <_>
          29 4 2 6 -1.</_>
        <_>
          29 4 1 3 2.</_>
        <_>
          30 7 1 3 2.</_></rects>
      <tilted>0</tilted></_>
    <_>
      <rects>
        <_>
          29 8 2 2 -1.</_>
        <_>
          29 8 1 1 2.</_>
        <_>
          30 9 1 1 2.</_></rects>
      <tilted>0</tilted></_>
    <_>
      <rects>
        <_>
          29 11 3 10 -1.</_>
        <_>
          30 11 1 10 3.</_></rects>
      <tilted>0</tilted></_>
    <_>
      <rects>
        <_>
          29 15 2 8 -1.</_>
        <_>
          29 15 1 4 2.</_>
        <_>
          30 19 1 4 2.</_></rects>
      <tilted>0</tilted></_></features></cascade>
</opencv_storage>
