<?xml version="1.0"?>
<opencv_storage>
<!-- Created using Computer Vision Toolbox(tm) for MATLAB(R) -->
<!-- Version 9.12.0.1927505 (R2022a) Update 1 -->
<!-- Compatible with OpenCV 4.5 -->
<cascade>
  <stageType>BOOST</stageType>
  <featureType>LBP</featureType>
  <height>32</height>
  <width>32</width>
  <stageParams>
    <boostType>GAB</boostType>
    <minHitRate>9.9500000476837158e-01</minHitRate>
    <maxFalseAlarm>2.0000000298023224e-01</maxFalseAlarm>
    <weightTrimRate>9.4999999999999996e-01</weightTrimRate>
    <maxDepth>1</maxDepth>
    <maxWeakCount>100</maxWeakCount></stageParams>
  <featureParams>
    <maxCatCount>256</maxCatCount>
    <featSize>1</featSize></featureParams>
  <stageNum>10</stageNum>
  <stages>
    <!-- stage 0 -->
    <_>
      <maxWeakCount>2</maxWeakCount>
      <stageThreshold>-1.0499855130910873e-01</stageThreshold>
      <weakClassifiers>
        <_>
          <internalNodes>
            0 -1 9 -519974753 -1853849464 67108865 1094844416
            -2147401555 -2012667904 65545 -201027568</internalNodes>
          <leafValues>
            -9.3750000000000000e-01 8.7500000000000000e-01</leafValues></_>
        <_>
          <internalNodes>
            0 -1 0 -1040064365 68206592 589840 268468227 675577856
            -2146926589 -2143248360 -805126142</internalNodes>
          <leafValues>
            -9.7999852895736694e-01 8.3425462245941162e-01</leafValues></_></weakClassifiers></_>
    <!-- stage 1 -->
    <_>
      <maxWeakCount>2</maxWeakCount>
      <stageThreshold>-1.9027040898799896e-01</stageThreshold>
      <weakClassifiers>
        <_>
          <internalNodes>
            0 -1 18 -2094931885 -2147418107 129 -1006526463 -2147483648
            16793600 -2143080448 -526131199</internalNodes>
          <leafValues>
            -9.5652174949645996e-01 7.6923078298568726e-01</leafValues></_>
        <_>
          <internalNodes>
            0 -1 1 -800997369 -1828610047 16842817 -1073643520 65541
            1174405120 809533864 -226263030</internalNodes>
          <leafValues>
            -9.5950120687484741e-01 8.0980944633483887e-01</leafValues></_></weakClassifiers></_>
    <!-- stage 2 -->
    <_>
      <maxWeakCount>2</maxWeakCount>
      <stageThreshold>3.1858116388320923e-02</stageThreshold>
      <weakClassifiers>
        <_>
          <internalNodes>
            0 -1 5 -1073117030 -65538 33042 1359052800 -2121621367
            -2112847870 -2147450741 -1056325116</internalNodes>
          <leafValues>
            -8.7999999523162842e-01 9.0909093618392944e-01</leafValues></_>
        <_>
          <internalNodes>
            0 -1 16 -2013210745 -1072693248 151060505 -116457455 39306
            -2147450752 2212 -519634805</internalNodes>
          <leafValues>
            -8.7723278999328613e-01 9.4355952739715576e-01</leafValues></_></weakClassifiers></_>
    <!-- stage 3 -->
    <_>
      <maxWeakCount>2</maxWeakCount>
      <stageThreshold>-8.8551603257656097e-02</stageThreshold>
      <weakClassifiers>
        <_>
          <internalNodes>
            0 -1 3 -49954633 268615808 262144 -1862238199 65672
            -2113929216 -2147385335 -884439740</internalNodes>
          <leafValues>
            -9.3548387289047241e-01 7.6470589637756348e-01</leafValues></_>
        <_>
          <internalNodes>
            0 -1 12 -1056587705 1343291395 1073741825 1879048194
            134447139 -2147483520 729 -469638642</internalNodes>
          <leafValues>
            -8.5325747728347778e-01 9.0960335731506348e-01</leafValues></_></weakClassifiers></_>
    <!-- stage 4 -->
    <_>
      <maxWeakCount>2</maxWeakCount>
      <stageThreshold>7.3657155036926270e-02</stageThreshold>
      <weakClassifiers>
        <_>
          <internalNodes>
            0 -1 6 -1363476481 -804257776 -2147446783 1359283160 32921
            -931133440 -2146926392 -574029695</internalNodes>
          <leafValues>
            -8.6274510622024536e-01 9.5238095521926880e-01</leafValues></_>
        <_>
          <internalNodes>
            0 -1 13 1497625277 285278217 16385 1082245120 -2146926453
            -2147319807 -2130182008 -1597669240</internalNodes>
          <leafValues>
            -8.7872380018234253e-01 9.4474518299102783e-01</leafValues></_></weakClassifiers></_>
    <!-- stage 5 -->
    <_>
      <maxWeakCount>2</maxWeakCount>
      <stageThreshold>-1.9458428025245667e-01</stageThreshold>
      <weakClassifiers>
        <_>
          <internalNodes>
            0 -1 7 -1870598127 -771686400 16777473 -1056407544
            -536838013 -1878949888 -2147475383 -1149042552</internalNodes>
          <leafValues>
            -9.5652174949645996e-01 7.6923078298568726e-01</leafValues></_>
        <_>
          <internalNodes>
            0 -1 15 1363268041 1342242817 276 1880195328 65568
            -804782080 258 -804421247</internalNodes>
          <leafValues>
            -9.5880955457687378e-01 7.6193743944168091e-01</leafValues></_></weakClassifiers></_>
    <!-- stage 6 -->
    <_>
      <maxWeakCount>2</maxWeakCount>
      <stageThreshold>-2.3304677009582520e-01</stageThreshold>
      <weakClassifiers>
        <_>
          <internalNodes>
            0 -1 1 -805208060 -780075008 65546 1610809361 16810008 0
            655755 -1954348925</internalNodes>
          <leafValues>
            -9.1397851705551147e-01 7.2549021244049072e-01</leafValues></_>
        <_>
          <internalNodes>
            0 -1 8 -645715629 -939483135 1074086144 302055425 4292617
            -2147483646 528520 1526333442</internalNodes>
          <leafValues>
            -9.5853698253631592e-01 7.4594789743423462e-01</leafValues></_></weakClassifiers></_>
    <!-- stage 7 -->
    <_>
      <maxWeakCount>2</maxWeakCount>
      <stageThreshold>-1.9845245778560638e-01</stageThreshold>
      <weakClassifiers>
        <_>
          <internalNodes>
            0 -1 10 -804953840 -788463616 33554501 -788462576
            -1073708624 -1040056320 -2130653046 -1711276023</internalNodes>
          <leafValues>
            -9.5555555820465088e-01 7.0370370149612427e-01</leafValues></_>
        <_>
          <internalNodes>
            0 -1 4 145 423624704 16810011 428941314 276856969
            -2013265916 168 -922746878</internalNodes>
          <leafValues>
            -9.0215617418289185e-01 8.5967636108398438e-01</leafValues></_></weakClassifiers></_>
    <!-- stage 8 -->
    <_>
      <maxWeakCount>3</maxWeakCount>
      <stageThreshold>4.4577759504318237e-01</stageThreshold>
      <weakClassifiers>
        <_>
          <internalNodes>
            0 -1 2 -771649534 1073741824 1358954512 1359020033 32768 0
            32947 -754745191</internalNodes>
          <leafValues>
            -9.7674417495727539e-01 6.2068963050842285e-01</leafValues></_>
        <_>
          <internalNodes>
            0 -1 17 -754589685 1359544320 0 1342242816 1073782784 0
            -2147450749 -1039433598</internalNodes>
          <leafValues>
            -9.1605210304260254e-01 7.6757317781448364e-01</leafValues></_>
        <_>
          <internalNodes>
            0 -1 14 1480624399 268500994 0 17105154 -1610481520
            1073807362 -2147450743 -1055554543</internalNodes>
          <leafValues>
            -9.4248521327972412e-01 8.1834077835083008e-01</leafValues></_></weakClassifiers></_>
    <!-- stage 9 -->
    <_>
      <maxWeakCount>1</maxWeakCount>
      <stageThreshold>7.4545454978942871e-01</stageThreshold>
      <weakClassifiers>
        <_>
          <internalNodes>
            0 -1 11 -2012034285 -1878622077 33571136 1157955584
            142739848 -1406533568 27797641 -593473280</internalNodes>
          <leafValues>
            -1. 7.4545454978942871e-01</leafValues></_></weakClassifiers></_></stages>
  <features>
    <_>
      <rect>
        0 16 2 3</rect></_>
    <_>
      <rect>
        0 20 1 1</rect></_>
    <_>
      <rect>
        1 8 1 1</rect></_>
    <_>
      <rect>
        1 13 3 5</rect></_>
    <_>
      <rect>
        3 0 6 1</rect></_>
    <_>
      <rect>
        5 0 4 3</rect></_>
    <_>
      <rect>
        9 0 2 1</rect></_>
    <_>
      <rect>
        10 0 1 1</rect></_>
    <_>
      <rect>
        10 0 6 6</rect></_>
    <_>
      <rect>
        12 27 1 1</rect></_>
    <_>
      <rect>
        20 0 2 2</rect></_>
    <_>
      <rect>
        20 17 2 4</rect></_>
    <_>
      <rect>
        22 4 3 5</rect></_>
    <_>
      <rect>
        23 14 3 6</rect></_>
    <_>
      <rect>
        25 9 2 5</rect></_>
    <_>
      <rect>
        26 6 2 2</rect></_>
    <_>
      <rect>
        26 24 2 1</rect></_>
    <_>
      <rect>
        29 9 1 3</rect></_>
    <_>
      <rect>
        29 14 1 2</rect></_></features></cascade>
</opencv_storage>
